{"layers": [{"type": "dense", "units": 16, "activation_function": "linear", "input_dim": 4, "weights": [[-0.00043998971792423054, -0.07901117730575384, 0.11216170691279957, 0.17828938768972213, 0.25978962842555, -0.15826683923345206, 0.16997241980342237, -0.024204382249156435, -0.4475813136713022, 0.36775272978243423, -0.5067757994320328, -0.008297225233474719, 0.10423051528297497, -0.4435012041926629, -0.1410367483339142, 0.36402165804738973], [0.1308439156285534, -0.07223430634214689, -0.38058352976629983, 0.17582589790690956, -0.04454853002585913, 0.18068649390979685, 0.2206124211128763, -0.0052661634975334016, -0.3051119189489749, 0.47494922862033667, -0.29210334197240906, -0.08683437247291713, 0.07018193761130638, -0.11752273498393956, 0.1429258537454497, -0.13569200456504596], [0.4574836970020792, 0.4492000885836894, 0.34936972205464106, -0.0025108993028665027, -0.14760591696246245, -0.06989350030843729, -0.032142275234724724, -0.302987569446917, 0.16438497774835814, 0.21110393156533852, -0.04851315965408625, -0.1561521168271144, -0.06995234461877496, 0.5400978320675465, 0.4588302546919863, 0.12144524413140668], [-0.054848934186801875, -0.08577281403828078, -0.03313839480178084, 0.09048050684443801, -0.20450809589084606, -0.19638277853540123, -0.4712314241816233, 0.3550443981423699, 0.5337386262246581, -0.34073582574161954, 0.027569498200891527, -0.29391457581418534, 0.1540336538577687, 0.23774731022507337, 0.3136841152425091, -0.03939441884042334]], "biases": [0.0024771007660952878, 0.00385935609859889, 0.004002963888658155, 0.0011966571224225802, -0.0018418593158016964, 0.003898510961150239, 0.0015688928740054606, 0.0070895660861604246, 0.0026196892889569982, 0.002103490302814029, 0.0011806218538635983, 0.0012821484888479882, -0.00023163457692168088, -0.00040422622035682544, 0.0019361429474761733, 0.0005570656503210884], "error_term": [0.05658798238955352, 0.13135423705637356, -0.051493717271759366, 0.1266522680064871, -0.0598139113218481, -0.008608304536070956, -0.16369258737954728, 0.13793831647255356, 0.1492353265672442, 0.05693952725024734, -0.037983319715263655, -0.1518623489818593, 0.03205867098778274, 0.05980054739860166, -0.040692289935851875, -0.11500990953946343]}, {"type": "dense", "units": 8, "activation_function": "relu", "input_dim": 16, "weights": [[0.3822146610233334, 0.122786527497588, 0.03404248474595721, -0.03591632779822099, -0.5553697350426329, -0.09830561181132956, -0.22937108498510236, 0.10842642234263652], [0.526423295012686, -0.0003749274558768128, -0.035755434872107555, -0.5278900736511297, 0.3363079180221726, 0.020233385275651862, -0.759741363489433, -0.1458635354953005], [0.0005151018671365262, 0.4147683889943869, -0.293434258695414, -0.13114249107609888, -0.1046109011077245, 0.7651991802130224, -0.7526886656107622, 0.47231807918656815], [0.5623028194600223, 0.15738104376799764, -0.2888136576276145, -0.35511388349861234, 0.6025318572550901, -0.1564825791676232, 0.06680325727029277, -0.1349876722199514], [-0.33952663141363953, 0.2778333431097271, -0.4376956176678902, -0.25642821459287973, 0.050655746253266395, -0.144561067296119, -0.4922959792719796, -0.1568862164089072], [0.27690270835936953, -0.24891355735349682, 0.0021776051513583633, -0.4757553141736754, 0.271490401148398, -0.4124088563671654, 0.01766503564805245, 0.38921475752330686], [-0.4859072843009011, -0.6364149315477622, -0.2750543325233156, 0.014371100759347808, 0.3997309153396754, -0.014649718345352494, 0.3428267528508981, 0.5350599202299985], [0.8562111776532785, 0.019457420584621122, -0.053336624497596685, -0.05550968792131981, -0.06443739759719959, 0.4302532250367624, -0.22880098433243679, 0.3752791082430884], [0.3141622171936659, -0.45797146256297616, 0.1936179311505257, -0.23033661729508612, 0.4890935551916679, 0.07150154204698247, -0.7778986588294925, -0.47522298051074624], [0.3725693746281719, 0.31326132503937865, -0.11787098849882653, -0.251692487109167, 0.2482611358638264, -0.05118954168689293, -0.366542108104034, 0.07119949261820155], [-0.17985431576299274, -0.3572713436880832, -0.44264971951183457, 0.27788624897181075, 0.5243385403521074, 0.15580000224713755, 0.01781296587580819, 0.10595698056314592], [-0.4047965268033949, -0.3534125159835908, -0.14537331649039298, -0.7503286582775411, 0.06337219711662084, -0.4726446829815302, -0.0559961118816052, 0.40476869433836954], [0.18468392589694482, 0.15116946269701137, 0.34515836473882655, -0.19427978211403577, -0.33154374050697577, 0.261395324013222, 0.3919806084871748, 0.08219820237419241], [0.3764407064356384, 0.2174779194427581, 0.43873044557253404, 0.3821927364706813, -0.29831613764790665, 0.049016445434756216, 0.6607107147472675, 0.09919725419464563], [-0.1339545804473275, -0.44275436360803017, -0.3892129236239512, 0.4398053289123584, 0.6419842176801821, 0.025577695683053504, -0.10631654671363212, 0.1709794390435351], [-0.5426448707290787, -0.4546474031982762, 0.11908529002722862, -0.17026684053263372, -0.2588574660547922, 0.4539253564571728, -0.16678127640460447, 0.20971484670465146]], "biases": [0.004759649471954718, -0.0030263833314588466, -0.0003301529758755359, 0.0, 0.0, 0.0007079847698237033, -0.0028948086838911447, 0.005369555893042381], "error_term": [0.20742941013191254, -0.02544075898700473, 0.0, 0.0, 0.0, 0.03697988543061041, 0.0, -0.14679684621939346]}, {"type": "dense", "units": 4, "activation_function": "linear", "input_dim": 8, "weights": [[-0.911827428649534, -0.3506013972464058, -0.2905816212115565, 0.18419573812423082], [0.021110986980435505, 0.4786731390291823, -0.22291733536672778, -0.15370002847721922], [0.3508882106840227, -0.22541034664548046, -0.21021493160724652, 0.27630564307507105], [0.2932096706993236, -0.45885940839339273, -0.3791345359487275, 0.1639096117739179], [-0.6979827116613411, -0.17737444672276137, 0.4750530733635969, 0.24101378807781246], [-0.4477151096159947, -0.5150968971907088, -0.16065113762259836, -0.5136559600996037], [-0.18740465379996285, -0.04939544611137214, -0.5205464567959697, 0.05282238240330806], [0.4251713651853997, -0.12318649428954104, -0.720604206290543, -0.016530130370257468]], "biases": [0.007481646310444226, -0.008721639770761491, -0.000846496217485231, -0.006758811729466966], "error_term": [-0.23373899104533333, 0.01641467995598854, 0.0607779634460905, 0.09624705638676216]}, {"type": "dense", "units": 3, "activation_function": "relu", "input_dim": 4, "weights": [[0.06251673747831718, -0.9677633811689387, 0.1380143031133594], [0.33681646397945286, 0.06795643324431364, 0.8812969879120262], [0.44720781004801735, 0.2515737601650576, -0.17295905111715335], [-1.0778014426871856, 0.39845323660792187, 0.43834267348241546]], "biases": [-0.0005898652795855206, -0.0089794369578108, -0.008911799730030426], "error_term": [0.0, 0.24153626565436964, 0.0]}, {"type": "dense", "units": 3, "activation_function": "sigmoid", "input_dim": 3, "weights": [[0.2636236213798583, -0.28369188041407206, -0.08559815878865798], [-0.11748402379467746, -1.1534586395502557, 0.6647170512273679], [1.390839715306655, 0.6654173087376628, -0.6444959724534448]], "biases": [-0.04324407421660844, -0.023767954091740703, -0.04018344800816185], "error_term": [-0.12224130419666769, -0.12349792037438426, 0.127460431449249]}]}