{"layers": [{"type": "dense", "units": 16, "activation_function": "linear", "input_dim": 4, "weights": [[0.03750730514468839, -0.07271182507446783, 0.18252395914269767, 0.20738721122731296, 0.2829319569647087, -0.1356553163798272, 0.13468104771826456, 0.019129307043793804, -0.5332871422473457, 0.4304479990493321, -0.5506242252505389, -0.009835820512301294, 0.12038642553708645, -0.4169344530432589, -0.1762024498295195, 0.3080887088983626], [0.12228484411660466, -0.12263699490197927, -0.3247611562113624, 0.152850648512702, 0.025738107391075335, 0.15519190469722385, 0.20612610634246484, -0.06417134871682485, -0.4227439485936754, 0.5029281695051567, -0.3307904103013348, -0.06817862890174123, 0.07026863472458623, -0.1341574845197486, 0.09868928877175472, -0.1523864639592398], [0.5241595423414709, 0.5421932263493304, 0.35564398811800135, 0.07722584841273887, -0.2293145536666391, 0.002281734777122251, -0.05885655737023381, -0.14547583115207927, 0.24012219549651748, 0.2532103256748854, -0.04539686124012964, -0.1904854168325765, -0.04857243803439327, 0.6023550588727853, 0.4827127479139896, 0.0701622008249051], [-0.02839440547018291, -0.04273346509488196, -0.03727678722005698, 0.12562341132772414, -0.2421589817951906, -0.16905650931611751, -0.4851794100474926, 0.42187336979833046, 0.5780916905946935, -0.3266391561901472, 0.031870974284104986, -0.3136478664650016, 0.16239935246753553, 0.2632093310691741, 0.32565408113277405, -0.05976906557156526]], "biases": [0.001636934704112278, -0.012064687706404075, 0.022827225996365216, -0.006697664222934589, 0.015573274862848076, 0.0033026317806674017, 0.005896011097842765, -0.005832807961367974, -0.03569126105926101, 0.0104738017446822, -0.008030530621849885, 0.01359722139443742, -0.0001596807538204106, -0.004280393042339515, -0.007082622804828779, -0.0015191420701583596], "error_term": [0.042859520789701705, 0.11427301329050234, -0.02810051562807834, 0.08048660024221796, -0.07030137599402436, -0.01055241211064703, -0.11179350196428346, 0.10919725802265468, 0.16366654438968747, 0.010287204496230946, 0.004674624389114983, -0.11450499458792154, 0.019132754959436164, 0.06287484285947756, 0.00428777418535202, -0.056963065070369065]}, {"type": "dense", "units": 8, "activation_function": "relu", "input_dim": 16, "weights": [[0.4515890883638346, 0.11212242003728004, 0.030420058076263624, -0.03591632779822099, -0.5553697350426329, -0.10089715248017578, -0.23123901496153482, 0.13352105123913674], [0.6099417968510691, -0.04950993926100152, -0.037847882444236945, -0.5278900736511297, 0.3363079180221726, 0.02559871290684257, -0.7594825601183933, -0.13900554727175948], [0.08913959189516675, 0.36354357001756454, -0.2954199135623537, -0.13114249107609888, -0.1046109011077245, 0.770436124114196, -0.7522090457871651, 0.48280728557980024], [0.5678242031678957, 0.19418515737011235, -0.2913004570872482, -0.35511388349861234, 0.6025318572550901, -0.16516165504261898, 0.0640550888745488, -0.11090670286878339], [-0.3805850874232068, 0.3267535704328541, -0.4377949420138301, -0.25642821459287973, 0.050655746253266395, -0.1538621714358613, -0.4940067144271747, -0.14115700169983827], [0.2416607488008014, -0.23505049900243974, 0.0034226770450224726, -0.4757553141736754, 0.271490401148398, -0.4130968588151672, 0.01799537837434309, 0.3818477977663103], [-0.5407556366604813, -0.5731919085701949, -0.2752437323577835, 0.014371100759347808, 0.3997309153396754, -0.02655800395219869, 0.3404075055577829, 0.5532095741251883], [0.8508571379758914, 0.01429284427857774, -0.05277368221418341, -0.05550968792131981, -0.06443739759719959, 0.43322063737589456, -0.2281909444718765, 0.3643856443607579], [0.40544834085431175, -0.5910314985570925, 0.19554185001388333, -0.23033661729508612, 0.4890935551916679, 0.09750372814923308, -0.772292272790884, -0.5240230913457871], [0.35715347421220595, 0.41866037146520685, -0.12300494538663465, -0.251692487109167, 0.2482611358638264, -0.07556883000951954, -0.37324721536990463, 0.13345132384427552], [-0.17319904724693205, -0.4544272746981662, -0.4375082253888342, 0.27788624897181075, 0.5243385403521074, 0.17842675994348692, 0.02423337935854556, 0.04650378366092048], [-0.44905781600648587, -0.34362964661259965, -0.14305427503217744, -0.7503286582775411, 0.06337219711662084, -0.4723715577298444, -0.05495465396324838, 0.3934703976554669], [0.1836817643545862, 0.17044423137614823, 0.3440471902427172, -0.19427978211403577, -0.33154374050697577, 0.2573332130992439, 0.3906943222436898, 0.09251567197130471], [0.49001111532915026, 0.10874746356100358, 0.43788333392593715, 0.3821927364706813, -0.29831613764790665, 0.06701587000159843, 0.6639564713651699, 0.08013986697604922], [-0.044392395427483064, -0.48592171841750914, -0.39250644485685854, 0.4398053289123584, 0.6419842176801821, 0.02991288536890455, -0.10688300164564578, 0.1813555109538994], [-0.5098359722285224, -0.4415813174287671, 0.11666403497405373, -0.17026684053263372, -0.2588574660547922, 0.4479421568003179, -0.1689450985278249, 0.23410650515256445]], "biases": [-0.017727255749497062, 0.0314555259447949, -0.0015436576069755466, 0.0, 0.0, -0.008826819198034222, -0.004533400300705902, 0.030544440420836885], "error_term": [0.1544391204020058, -0.06251995055958906, 0.0, 0.0, 0.0, 0.046402839176557506, 0.0, -0.11366708150964737]}, {"type": "dense", "units": 4, "activation_function": "linear", "input_dim": 8, "weights": [[-0.99138171296448, -0.44602990677136384, -0.34389054988258483, 0.3678024494443587], [0.19191251858400782, 0.48075648253574044, -0.19732506988487528, -0.39647488894549093], [0.3508209115690702, -0.2254096019399011, -0.21019582337708917, 0.2763328373670223], [0.2932096706993236, -0.45885940839339273, -0.3791345359487275, 0.1639096117739179], [-0.6979827116613411, -0.17737444672276137, 0.4750530733635969, 0.24101378807781246], [-0.5155320156354418, -0.5603029470616587, -0.17667369236273087, -0.414928070025664], [-0.18740465379996285, -0.04939544611137214, -0.5205464567959697, 0.05282238240330806], [0.5175965858060821, -0.11737761319889983, -0.712099711670589, -0.13386604101324023]], "biases": [0.0709354388086418, 0.005706460389895942, 0.01177735847239806, -0.10101140614060058], "error_term": [-0.1464405393719283, -0.005296590497953065, 0.04295910317008779, 0.05896258985941208]}, {"type": "dense", "units": 3, "activation_function": "relu", "input_dim": 4, "weights": [[0.3006183556921888, -1.0904466100169385, 0.1579703947447278], [0.5006003287518475, -0.03945173053563374, 0.8762286129434258], [0.43583562795486813, 0.31980093729045694, -0.13217705047043316], [-1.1328072527895197, 0.4390154348286173, 0.45560362204535776]], "biases": [0.06100477460112434, -0.06425426379070844, -0.018866621365392612], "error_term": [0.0, 0.13430050030249366, 0.0]}, {"type": "dense", "units": 3, "activation_function": "sigmoid", "input_dim": 3, "weights": [[0.2922874737564745, -0.5995176842311186, -0.2265768232126159], [-0.27290969674904464, -1.1804243185237346, 0.761271362578217], [1.437578113456859, 0.357668585343219, -0.7735601351342706]], "biases": [-0.39011092553726157, -0.08029728630743675, -0.279540416613415], "error_term": [-0.07631759889768669, -0.03800312184748763, 0.09013135252733734]}]}