{"layers": [{"type": "dense", "units": 2, "activation_function": "relu", "input_dim": 4, "weights": [[-0.1753391605117114, 0.3412729227095436], [-0.6440740269333312, -0.9368345452469957], [0.39303431404908934, -0.35052442280143586], [-0.37594198930468375, 0.12418772520577781]], "biases": [0.0, 0.0], "error_term": [0.0, 0.0]}, {"type": "dense", "units": 16, "activation_function": "relu", "input_dim": 2, "weights": [[0.12277708664566442, -0.25453254995774177, 0.023201674015095312, -0.2109407121362374, 0.2033379014873443, 0.10420211344491959, -0.08026322880750532, -0.3284072424153072, -0.08345761499102898, -0.11716700788972885, -0.027536706828003812, 0.05444281815216828, -0.07938224868126206, 0.05857413272818006, -0.14364893538045304, -0.253331925812457], [-0.48501528477301, -0.36868675355680486, -0.21486775095445712, 0.31148377810951217, -0.11015427777203306, -0.09758523532643319, 0.22100015265173728, 0.24435469289586284, 0.11368618866509733, 0.5767458424669959, 0.23232246069252227, 0.46853814579385333, -0.027787495557386584, 0.08400420901326121, 0.08426304946965055, -0.06397653174768549]], "biases": [2880.2609814462126, -3864.0353089627833, 277.4110259083941, -4414.4366801663355, 1214.7325168214136, -1829.751857105624, -1328.5224412588057, -622.6327478172989, -5588.496725440461, -2298.5046993118076, 5204.203271194637, -4566.558989645616, -5302.481283256551, 700.5280282994199, 5141.1652969260895, -6660.617864628285], "error_term": [0.0, 0.0, 0.0, 0.0, 0.0, 0.0, 0.0, 0.0, 0.0, 0.0, 0.0, 0.0, 0.0, 0.0, 0.0, 0.0]}, {"type": "dense", "units": 16, "activation_function": "relu", "input_dim": 16, "weights": [[0.42743385039056697, -0.19563778877632768, -0.4016751337338398, 0.6204451033695498, -0.36162753191816427, 0.17767645933562384, 0.027717659080859377, -0.0820677718668138, -0.13401980776621417, 0.3740745806095263, 0.09499231338287521, 0.21404916945505845, 0.20343236372851578, -0.017644163563350704, -0.330914463249799, -0.46895092800500354], [0.16579493134142012, 0.01930380702636255, -0.14734410627943845, -0.037949393041380106, -0.19399536595082775, -0.008002673532801157, 0.5452522070069635, 0.1733563056913152, 0.0643197346683046, 0.017613271820019594, -0.04443874097051919, 0.37674432921763634, -0.35125742003854077, 0.0024571402341533296, 0.12107297059039779, -0.26940409376588836], [-0.021031209012743166, -0.2162015799659374, 0.07654135676938587, 0.1532256954114473, -0.11530334885482055, 0.13587548393863708, -0.13528639092545794, -0.16551496394861528, -0.18809778780814596, 0.10236103956622467, -0.17296583004042515, -0.1579673946404063, 0.40772308018201137, 0.005071851187471472, 0.30531975075969847, -0.12737572890976226], [0.05384958371752505, 0.2275305773405719, 0.2897123805150691, -0.12925916276556296, 0.31547999759310763, 0.06290707728317843, -0.15956975182686725, 0.5860943485369189, 0.19203883784860248, 0.459230106996256, -0.13757221996675364, -0.09000898988287309, 0.05585752506652176, 0.6037032018398079, -0.10515637756960632, 0.26920155577807403], [0.005608893778330249, -0.09173210201891337, 0.1899451330302952, 0.2695950824482941, -0.14518180138411035, -0.006091954358189205, -0.34685135101045117, 0.09633654818687819, 0.23276507383842848, 0.16607958838283793, 0.03553241557295366, 0.012250986515790983, 0.23458536279604542, 0.1383516798290212, 0.17730805438084882, 0.28062204303125443], [-0.02532403319026368, -0.049624833602125114, -0.07671540030036175, -0.38279353327372284, 0.009480200843710065, 0.23685050020316015, -0.17833266324688188, 0.3938226146454237, 0.087344595880131, -0.3858780795457774, -0.4339750143321919, -0.08869560283609694, -0.459320900898106, 0.22375928001933562, 0.1354703682361893, 0.018102100005607594], [0.01490809260515898, -0.07290771631277723, 0.3706585030010348, -0.05254862188541253, 0.23112114570108355, 0.27696408090129554, 0.3793503226048347, -0.19360006445922312, 0.05604548953751367, 0.22648654337803462, 0.2838627497043631, 0.1572722602714205, -0.14218158850114446, 0.010598270122365758, 0.01119658563304287, -0.12176353175409883], [-0.14829956942294506, 0.1872235545893425, 0.42649302049346416, 0.30038105252262964, 0.15552162501584774, -0.051082960487322256, 0.09408985788421004, 0.04454837897447818, 0.827456948814768, -0.05901638608511897, -0.11493262771375043, 0.19723625664824376, 0.2926922012278058, 0.06858417367256268, -0.08043285933744097, 0.3007497006221106], [-0.02745743038527582, -0.025215919925095358, -0.23618372260500436, 0.021296264563986755, 0.04361910075086236, -0.41404463424646765, -0.34724529496059137, 0.3865743971596495, -0.4942855241549076, -0.39200542531843435, -0.292478749346075, 0.19247609715103398, 0.4552080985114975, 0.07061394964244938, -0.27832735907645884, -0.43097054584556316], [-0.2394062818682911, -0.05480173781400639, 0.031796449835168356, 0.01115651956135518, -0.020952395970963673, -0.30885310218407985, -0.1375960123677236, 0.7166823946490745, 0.2050920970781906, -0.08094852250963191, 0.010033693779681462, -0.16489745398911881, -0.005558175559039993, 0.1618541034374605, 0.10981084861075532, 0.2272385609414442], [-0.14429014209639576, -0.5252612770571023, -0.3487772526735267, -0.06593307555437922, 0.1819839813791328, -0.18865355115492263, 0.19772034669955604, -0.5158555558140905, -0.009877290645795414, -0.08211144133077983, -0.2822751273719914, 0.47534496531280357, 0.18490828435890783, -0.23732782410672607, -0.4370960936546789, 0.08381357689216644], [-0.25614982860555047, 0.04942660567248229, -0.35678484931520477, -0.017783146100209344, 0.5120691401639765, 0.31395954157427153, -0.5252545363427192, 0.4140845738237948, -0.34590572464975883, -0.10968620092996845, 0.01652655687527629, -0.05849718733409931, 0.08169953781478624, 0.14465267441355498, -0.13839692086325603, -0.3286784116735542], [-0.2579149732437306, 0.37038548349848127, -0.1920463466209595, -0.5811897121335597, 0.27870742306902413, -0.38794626121413234, 0.026054302055288067, 0.3515621397124527, 0.04908423301548388, -0.009015336041005706, -0.2526343086253303, 0.05849240767921307, -0.41872251870895544, -0.08954947730438136, 0.045482191899489266, -0.11567821021915388], [-0.15927834183452222, 0.06426362375581694, -0.23401593107281465, 0.45225998276989615, -0.39293707265417477, 0.09515775331071818, -0.12443616891821849, 0.31452594005536905, 0.09488004739543604, 0.013395710069488295, 0.38353792832136335, 0.5557177269082343, -0.34528505153066885, -0.23578094514686251, 0.1666889844356625, 0.17784910669659962], [0.22762823543068514, -0.42248125852447665, 0.49693492368899583, -0.1274451708650776, -0.6375228602476932, 0.00951694981273594, -0.645397680476885, -0.21081023405533106, -0.01246258787197898, 0.08781980973269463, 0.26933498762423347, -0.33328681233296015, 0.15793633934866533, -0.20170187715151647, 0.40802214703767736, 0.18918337591755827], [-0.08494347400837243, -0.07730115887737511, 0.019717937823744598, -0.20802993485385318, 0.03825662450574768, -0.06431131213745608, -0.004004992969719277, -0.07669176532582776, 0.5243327196224388, 0.20373581401802332, 0.04818278833882498, 0.11396707638853341, 0.5424751311374892, -0.21316955207746954, 0.3670990692102743, -0.3738007186563766]], "biases": [128.90741511953297, -507.7500108535106, 15.269627941601785, 546.311179743573, -121.23271280281007, 38.20451055885581, -158.9155351059408, -407.47180026662676, -42.2168409751249, 185.15901112055946, -312.6494333923367, -510.5444793149319, -481.6750813754778, -627.5310574881952, -505.0984466091992, 629.2008335651689], "error_term": [0.0, 0.0, 0.0, 0.0, 0.0, 0.0, 0.0, 0.0, 0.0, 0.0, 0.0, 0.0, 0.0, 0.0, 0.0, 0.0]}, {"type": "dense", "units": 3, "activation_function": "relu", "input_dim": 16, "weights": [[0.04610106696399349, 0.9867396163670921, -0.5078152370805061], [0.15908795483765986, -0.8639331747945928, -0.3411409480906197], [0.2741100700119097, 0.08005067200425314, 0.5139783518443716], [0.07565507160301964, 0.8139169851942759, 0.9763266972424824], [0.3531744494597332, -0.3791407818423194, 0.7217915423533554], [0.5698133491110515, 1.6151134000415321, -0.36087317014286174], [0.3075552382037701, 0.006474841577018545, 0.13188902951269912], [0.1072526524171606, -0.8812590788510023, -0.12665101711455698], [0.7110818511288025, 0.5852690495854748, 0.7102441297467555], [-0.7439880689468938, -0.3623099513024377, -0.5701891532296713], [-0.2754938375715405, -0.9019543618671801, -0.5869816134529113], [0.7491499283457319, -0.04587772308076383, 0.01254414182743203], [0.35640860096237814, -0.6578910572576713, -0.0743169849440059], [1.1249138545572024, 0.2922524025794437, 0.07498213407037495], [-0.14792960734333038, -1.918517679644104, 0.10736312512984522], [-0.8739579883451134, 0.03166915729097762, 0.1080173667143022]], "biases": [-66.66666666666666, 33.33333333333333, 33.33333333333333], "error_term": [0.0, 0.0, 0.0]}, {"type": "softmax"}]}