{"layers": [{"type": "dense", "units": 2, "activation_function": "relu", "input_dim": 4, "weights": [[0.39173903338025573, 0.7123334237127426], [-2.8830376413986643, -0.89192829709686], [-1.6041958409744452, 0.09170375315887878], [-0.9899120863453111, -1.5524554523069791]], "biases": [0.0, 0.0], "error_term": null}, {"type": "dense", "units": 16, "activation_function": "relu", "input_dim": 2, "weights": [[0.33862706657187597, 0.20473731826957325, 0.9179413359484953, -0.38344947980204136, -0.04346411879107945, -0.829574797659156, 0.1545824193787596, 0.1723169768253, -1.771094438571409, -0.7362796441070553, 1.4321305230423316, -0.424080016624701, -0.8516737149766589, 1.0345982255809874, -0.013139289207368222, -0.22918347497044972], [1.7870639562324455, -1.8715056537450139, -1.440217476396776, 0.7224750818005806, -1.515638847555614, -1.6836665961292712, 0.5237440866163139, -1.202422347499468, -2.087127989217153, 0.3122525196565397, -2.0043239310282845, 0.8264611028691797, -0.9972187201547923, -0.742227004023728, 0.6296728090219613, 0.30307688448440645]], "biases": [0.0, 0.0, 0.0, 0.0, 0.0, 0.0, 0.0, 0.0, 0.0, 0.0, 0.0, 0.0, 0.0, 0.0, 0.0, 0.0], "error_term": null}, {"type": "dense", "units": 16, "activation_function": "relu", "input_dim": 16, "weights": [[0.22507220599886524, 1.6688071476794946, 1.5687851285336656, 0.727042127861575, 0.9052551835317874, -0.7964992769861537, -0.6090086184687306, -0.5929977561790312, 0.7019164723219926, -0.9791090984147559, -0.0717848271500401, -1.6611971626153936, -0.66100120866269, -0.8138536978428337, 0.6230600182242662, 0.3946493010399824], [-1.031486929194795, -0.7367725955876673, -0.9499945447252738, 2.1540244940736697, -0.10620099165890633, -0.8245167530535016, 1.2450685010431608, -1.2443321494703192, 0.20025404715000508, 2.063029774182858, 0.7204932721268819, 1.0758831039847367, 0.04002862671423679, 1.5733687429408172, 0.3921265349336564, -0.7520494046659361], [0.3575317084561502, -1.076082844462259, 1.5279480249553816, 0.2748191486946079, 0.1881605299809943, -1.579673064920742, 0.6343318261137828, -0.5057692207246874, -0.362069233577658, -0.5429127403957136, -1.270357794429711, -1.8824064644306924, 1.2266421986510199, -0.062289479929184675, 1.044023724051473, -1.1428488847922373], [-1.3511498324378182, 0.2725884137320315, 1.1633722998043576, -0.43369062542850373, -1.0040297282600408, -1.392155723629249, -2.501184984846002, 0.4134875110868064, 0.6912580438850705, 1.0290637976282955, 0.03854477444232959, 1.2709235333709326, 0.03317353464129399, 0.20096666063639176, 0.4056329965319625, 0.21171188864726673], [-0.25976731685069115, 0.6694801118981785, 2.1375443455454057, 0.8151094712077112, -1.7725052882693384, 0.22802697478670822, 1.831172234545613, -1.213200183578017, 1.191092668574328, -0.8231232970052365, -1.2173160402939447, -2.6477886780349404, -0.40992287158219004, -1.8738732560411067, 0.09115793980014548, -1.0325194603707744], [-0.024997450733759013, -0.5550997793971149, -0.5689547121473577, 1.4514571149969033, 0.7463642575563761, 0.027173441084113573, -0.8486880645994345, 0.3821969984969733, -0.7474776606944977, 0.6813544415123188, -1.4771726038103492, 0.08806917558890404, -1.179840914949102, 0.5341652753504518, 0.5860072640886521, 1.4024072644597054], [-1.3447853103132785, -1.3340026364536268, 0.9326501262623598, -0.010413691977108173, -0.6292342716023487, -0.6654010456927315, -0.3221072905372267, -1.2228681184936487, 0.8033340807461831, 0.3950983796323218, -0.7349723538786865, 0.06740858444763059, -0.8336399255397121, 0.2470837749893011, -0.6551024647502138, -0.11581644116740779], [0.7407829404645944, 0.6089811054428017, -0.5876150441979113, -0.7765533182677647, -0.4343067382151426, -0.895989772790383, -1.225069488411056, -2.470795968181105, 0.6231511358428563, -1.402003829769245, -0.5003968731212393, 0.40147120145355736, 0.8021928187441502, -0.15747710712124888, 2.0751350411476484, 0.024898548235918628], [1.4274396941915215, -1.2173457540610158, -0.34621546967027195, 1.4197562501520162, 0.13491236428919443, -0.742495872112912, -1.0244320735435122, 1.9208961290564215, -0.2080150119751615, -0.7166809432616946, 0.22216497114936395, 1.2290846028341886, -0.3659355973420791, 1.274290989819305, -1.236002052413016, -0.42423578021690944], [0.9667979483705548, -2.153910584364402, 0.3810965945633292, -0.24156751867391216, 0.8678072232243128, -0.9884523477860554, 1.9938675971908297, -1.591245336688883, -1.279575936547344, -1.0588809142074946, -0.4708197377940962, -0.7787944823633286, -0.0015195494180720794, 1.8457394322204226, -0.21791818331204696, 1.1309101745547838], [0.34846863846049886, -0.13335385702505023, -1.4786905106575174, 1.5472015293853874, -2.0464517631639842, -1.7737790436138479, 0.5483067506382235, -0.6109606914018705, -1.0489020006668723, 0.17910444008808435, -1.0821963715114786, -0.4930973267889318, 0.25248416685425557, -1.1515912547844223, -1.1225140574257346, -1.2266469219637641], [0.1560612356357263, -1.5602340132744812, 0.5399704656712837, -0.042689656758309366, -0.6974535606973962, -1.1990443792900318, 1.2538450403533434, -0.20373218459349482, -1.913948657808421, 0.8969977060835089, 0.08477979959550709, -1.1104559797674065, -1.7541499685606101, 0.0830130769827626, -0.39233365560931643, -1.0264120580853426], [0.18565250265742086, -0.7403769741819689, -0.1219500769558423, -1.8890107612151805, 0.5204019037325137, -1.045659969470612, 0.39119167978483654, 1.24778683185152, -0.15426816169823554, 0.09250848032153278, -0.15991634113918038, -0.8101788159484273, 0.01965038929719981, -0.7878697980767165, 0.511590216232249, 0.6946411685605921], [-2.2147777951540553, 0.671311011530883, -1.7221764874395726, 1.5125532604755139, 0.7971733388836423, -1.6521391227382063, -1.1607039789164575, -0.08387991267977347, -0.18877273721205354, 0.2384720567233505, 1.0934403468682763, 0.966717884663412, 0.7844728663818817, 1.0053700903572507, -1.4873021725057902, -0.867707732588148], [-0.6478825078543609, -0.5735942215342836, -0.09770316171908264, -1.6909593795794085, 0.40617756378398173, 0.5715601365776382, -1.1608430087869728, -1.0117228192922643, 0.6713366115030119, 0.20517546614663523, -0.05922382655592648, 0.5779091415793927, 0.02978501887306538, -0.2672580998710231, 0.01759505885498587, 0.10131625774023131], [-1.0893783713547527, -0.9215167655595126, -0.2503483518337071, -0.6903554197393156, -0.7117450426055554, -0.1727976537924114, -1.4160608998387954, 0.7667010446470502, 1.49362564576006, 0.12728470882296636, 0.09176942997106448, -0.09408797135232182, 0.7528390303864108, -1.3021686853526413, 0.3390581908757237, -0.6071768195970338]], "biases": [0.0, 0.0, 0.0, 0.0, 0.0, 0.0, 0.0, 0.0, 0.0, 0.0, 0.0, 0.0, 0.0, 0.0, 0.0, 0.0], "error_term": null}, {"type": "dense", "units": 3, "activation_function": "relu", "input_dim": 16, "weights": [[0.595715063302614, -1.0520441787403578, 0.42298631997474867], [1.1472131277053141, -0.07053000754713763, -0.811803661764839], [1.743317146956426, -0.7014822690221104, 1.1651399901342927], [-0.08345910791960653, -1.2823752796696102, 0.9140417653536543], [-0.5383750934210422, -0.2877493224289231, -0.02463144572591238], [0.5630514955482785, -1.3445245537865713, 0.4868175211158685], [1.6640142106990925, 0.7764179930113557, 0.19036353454319394], [-0.7691482618066748, 1.5387590216635465, 0.9851187307135805], [-0.25187557848328646, -0.550059743636638, -0.5592223303312789], [0.8482852376860518, 0.5562297259222792, 0.5877122418362205], [0.2065715023941676, -0.17629473081931954, 2.425477199640677], [-1.402161958625429, -0.39004680433300615, -0.33684173448607946], [0.16357561700394585, -0.673939747692965, 0.5644215874421963], [1.4908258446097051, -1.5802730199989623, -0.02744970498173586], [-1.5747382855672916, -0.7660162711616993, -2.1433086678668416], [-0.31760506750449713, -0.6640241579689315, 0.49338057920972744]], "biases": [0.0, 0.0, 0.0], "error_term": null}, {"type": "softmax"}]}